{
    "layers": [
        {
            "name": "dense",
            "type": "Dense",
            "config": {
                "name": "dense",
                "trainable": true,
                "dtype": "float32",
                "units": 128,
                "activation": "sigmoid",
                "use_bias": true,
                "kernel_initializer": {
                    "class_name": "GlorotUniform",
                    "config": {
                        "seed": null
                    }
                },
                "bias_initializer": {
                    "class_name": "Zeros",
                    "config": {}
                },
                "kernel_regularizer": null,
                "bias_regularizer": null,
                "activity_regularizer": null,
                "kernel_constraint": null,
                "bias_constraint": null
            },
            "weights_shape": [
                "(5, 128)",
                "(128,)"
            ],
            "weights_flattened": [
                [
                    -0.46883535385131836,
                    0.25648751854896545,
                    -0.40895184874534607,
                    -0.24163489043712616,
                    0.38645729422569275,
                    0.02571967989206314,
                    -0.21816393733024597,
                    -0.2725822627544403,
                    -0.1273776888847351,
                    -0.2657065689563751,
                    -0.37261900305747986,
                    -0.3972177803516388,
                    0.3851993978023529,
                    0.1925712525844574,
                    -0.4361122250556946,
                    -0.48266083002090454,
                    0.28618812561035156,
                    0.4448752999305725,
                    0.1276492178440094,
                    0.43051329255104065,
                    -0.2924892008304596,
                    -0.006256734952330589,
                    -0.4854389429092407,
                    0.3962918817996979,
                    -0.026334501802921295,
                    0.20107892155647278,
                    0.4522693157196045,
                    -0.09952439367771149,
                    -0.2628549039363861,
                    -0.20887912809848785,
                    -0.5058072209358215,
                    0.025282319635152817,
                    0.3164534568786621,
                    0.47336262464523315,
                    0.3598947823047638,
                    0.4596179127693176,
                    0.38113731145858765,
                    0.10832418501377106,
                    0.36276328563690186,
                    0.1029932051897049,
                    -0.09144634753465652,
                    0.22821828722953796,
                    0.28564903140068054,
                    0.010448976419866085,
                    0.42583033442497253,
                    0.2419464886188507,
                    0.17016448080539703,
                    0.29004737734794617,
                    0.09781169891357422,
                    0.06310853362083435,
                    -0.3344537317752838,
                    0.01899302937090397,
                    0.03259335085749626,
                    0.04215749725699425,
                    -0.4211972951889038,
                    -0.3522298336029053,
                    -0.04221421107649803,
                    -0.27820929884910583,
                    0.2422415167093277,
                    0.3682922422885895,
                    0.01664297841489315,
                    0.4655313193798065,
                    -0.28427428007125854,
                    -0.5305072665214539,
                    -0.28512534499168396,
                    0.18810848891735077,
                    0.2246910184621811,
                    0.30242353677749634,
                    -0.30991512537002563,
                    -0.2904585003852844,
                    -0.4145162105560303,
                    0.26127713918685913,
                    -0.3869936764240265,
                    -0.23413625359535217,
                    0.21323418617248535,
                    -0.3924785852432251,
                    -0.24154625833034515,
                    0.43880441784858704,
                    -0.31896665692329407,
                    0.34580522775650024,
                    0.161942720413208,
                    -0.21035568416118622,
                    0.3042234182357788,
                    -0.15054120123386383,
                    0.3912811577320099,
                    0.4017621874809265,
                    0.20153436064720154,
                    -0.31998997926712036,
                    0.30908048152923584,
                    -0.3279210329055786,
                    0.1955484300851822,
                    -0.42465999722480774,
                    0.26987424492836,
                    -0.15517844259738922,
                    -0.4087287485599518,
                    0.4203628599643707,
                    -0.3770912289619446,
                    -0.43319573998451233,
                    -0.17478488385677338,
                    0.04847269877791405,
                    -0.43244701623916626,
                    -0.13831642270088196,
                    0.329574853181839,
                    -0.41968047618865967,
                    -0.38691994547843933,
                    0.35320913791656494,
                    0.3873010277748108,
                    0.13981562852859497,
                    -0.1139809861779213,
                    0.4886007010936737,
                    -0.15064147114753723,
                    0.2256476730108261,
                    0.17362210154533386,
                    -0.4560489356517792,
                    -0.3108959197998047,
                    0.10237134248018265,
                    -0.4433180093765259,
                    0.330489844083786,
                    -0.4147041440010071,
                    -0.18880771100521088,
                    -0.12016952782869339,
                    0.06296150386333466,
                    0.20190472900867462,
                    0.136128231883049,
                    -0.01436339970678091,
                    0.16449274122714996,
                    -0.43416163325309753,
                    -0.2266368418931961,
                    -0.1246887594461441,
                    -0.059416234493255615,
                    0.0032921703532338142,
                    -0.12844933569431305,
                    0.015971781685948372,
                    -0.10178680717945099,
                    0.10340766608715057,
                    0.12231184542179108,
                    -0.03644508495926857,
                    -0.11992426216602325,
                    -0.09526851028203964,
                    0.10995982587337494,
                    0.044704753905534744,
                    -0.10926984995603561,
                    0.14436645805835724,
                    0.0802765041589737,
                    -0.029816871508955956,
                    0.07899507135152817,
                    -0.011744718998670578,
                    0.09554260224103928,
                    -0.12571175396442413,
                    -0.2186797559261322,
                    0.07094617933034897,
                    -0.010669545270502567,
                    0.18019521236419678,
                    0.16391393542289734,
                    0.13919031620025635,
                    -0.19468703866004944,
                    0.12154746800661087,
                    0.16847078502178192,
                    -0.07076887041330338,
                    -0.18905237317085266,
                    0.20660912990570068,
                    0.09290266782045364,
                    0.13063140213489532,
                    0.04524761065840721,
                    -0.07015205174684525,
                    -0.03559602051973343,
                    -0.0008491784101352096,
                    0.12026363611221313,
                    -0.040291156619787216,
                    0.03239426761865616,
                    -0.06340590864419937,
                    0.09468557685613632,
                    -0.06003180518746376,
                    -0.09784624725580215,
                    0.05131544917821884,
                    -0.06063975766301155,
                    0.06410336494445801,
                    0.07335353642702103,
                    0.060343898832798004,
                    0.0028289062902331352,
                    -0.06737454980611801,
                    -0.029974879696965218,
                    -0.04143950343132019,
                    0.12808865308761597,
                    -0.017942607402801514,
                    -0.11656657606363297,
                    -0.1470136195421219,
                    0.21034730970859528,
                    -0.054722800850868225,
                    0.10154832899570465,
                    -0.1266702562570572,
                    -0.0573589988052845,
                    -0.15545327961444855,
                    -0.007497037760913372,
                    -0.06633041799068451,
                    0.14491531252861023,
                    -0.038070060312747955,
                    0.12536732852458954,
                    -0.10891781002283096,
                    -0.017539789900183678,
                    -0.1592361479997635,
                    -0.05792820453643799,
                    0.019749965518712997,
                    0.14817675948143005,
                    -0.08607568591833115,
                    0.04689938947558403,
                    -0.14142641425132751,
                    0.07875064015388489,
                    0.1732850968837738,
                    0.15230612456798553,
                    0.08341198414564133,
                    0.15066181123256683,
                    -0.1333470493555069,
                    0.1408858448266983,
                    -0.07516268640756607,
                    -0.053550537675619125,
                    0.0910974070429802,
                    0.04829171299934387,
                    -0.06871142983436584,
                    0.0046483906917274,
                    -0.04068446904420853,
                    0.011997798457741737,
                    0.0743446871638298,
                    -0.09589926153421402,
                    0.04445970803499222,
                    -0.05583591386675835,
                    0.1065559908747673,
                    0.18918882310390472,
                    -0.15857651829719543,
                    0.038474734872579575,
                    -0.05176473408937454,
                    -0.07068967819213867,
                    0.051170941442251205,
                    0.011957318522036076,
                    0.0782913789153099,
                    0.19001972675323486,
                    0.12465119361877441,
                    0.10051599889993668,
                    0.02906792424619198,
                    0.10828851908445358,
                    0.01744057796895504,
                    0.059677593410015106,
                    0.16014650464057922,
                    0.15914498269557953,
                    0.053678885102272034,
                    -0.09440094977617264,
                    0.0033989164512604475,
                    0.04877008497714996,
                    0.058662522584199905,
                    0.12484154850244522,
                    0.024539059028029442,
                    0.07402381300926208,
                    -0.12232997268438339,
                    0.06957239657640457,
                    0.08986616134643555,
                    0.03579402714967728,
                    -0.0892212986946106,
                    -0.26725339889526367,
                    0.07637173682451248,
                    0.0813007727265358,
                    0.11342558264732361,
                    0.3480485677719116,
                    -0.08208798617124557,
                    0.18234460055828094,
                    -0.1079474687576294,
                    -0.0328684076666832,
                    0.07557053118944168,
                    -0.18620257079601288,
                    -0.28704410791397095,
                    -0.16106358170509338,
                    0.09967800974845886,
                    0.0998542457818985,
                    -0.18832314014434814,
                    0.11134867370128632,
                    -0.284699022769928,
                    -0.1933922916650772,
                    -0.0822705626487732,
                    0.07271861284971237,
                    -0.12777726352214813,
                    -0.18391931056976318,
                    -0.23344148695468903,
                    0.15597905218601227,
                    0.09422002732753754,
                    0.2974695563316345,
                    -0.2310338020324707,
                    -0.2637488543987274,
                    -0.004741424694657326,
                    -0.7563260793685913,
                    0.15873511135578156,
                    -0.0873371884226799,
                    0.03432594612240791,
                    -0.1612100899219513,
                    -0.2108035832643509,
                    -0.15833863615989685,
                    -0.3017214834690094,
                    -0.14772623777389526,
                    -0.1700441837310791,
                    -0.14212371408939362,
                    -0.04914378747344017,
                    -0.04571371525526047,
                    0.2368193119764328,
                    -0.17175038158893585,
                    0.23760837316513062,
                    -0.14724884927272797,
                    0.38966235518455505,
                    -0.3996804356575012,
                    0.1173015758395195,
                    -0.5400763750076294,
                    -0.3605586588382721,
                    0.722507894039154,
                    -0.13846860826015472,
                    0.20024867355823517,
                    0.18927893042564392,
                    -0.2221679538488388,
                    -0.1836882084608078,
                    0.197611466050148,
                    -0.46331435441970825,
                    -0.026878630742430687,
                    0.03063577599823475,
                    -0.25916069746017456,
                    0.000271391065325588,
                    -0.07146865129470825,
                    -0.3283589780330658,
                    0.1266302615404129,
                    -0.0674542486667633,
                    -0.17833761870861053,
                    -0.30547794699668884,
                    -0.0894676074385643,
                    -0.3176195025444031,
                    -0.14884382486343384,
                    -0.5184307098388672,
                    0.08532944321632385,
                    0.011013398878276348,
                    -0.03783462196588516,
                    0.11822382360696793,
                    0.40286490321159363,
                    -0.013623159378767014,
                    -0.5732362270355225,
                    0.05744277685880661,
                    -0.23775480687618256,
                    -0.0004139365628361702,
                    -0.010442833416163921,
                    -0.027608396485447884,
                    -0.09992176294326782,
                    -0.24346642196178436,
                    0.08113554865121841,
                    0.5520443320274353,
                    -0.04786809906363487,
                    0.24478845298290253,
                    -0.6998539566993713,
                    0.2327570915222168,
                    -0.006272776052355766,
                    0.13622015714645386,
                    0.0413888543844223,
                    0.2373259961605072,
                    -0.4679468274116516,
                    -0.22094525396823883,
                    0.4238530993461609,
                    -0.265998512506485,
                    0.04830138757824898,
                    0.12603214383125305,
                    -0.07978441566228867,
                    -0.30842286348342896,
                    0.26104259490966797,
                    -0.08499129116535187,
                    0.17853368818759918,
                    -0.018075183033943176,
                    -0.10005325824022293,
                    -0.14845892786979675,
                    -0.13536138832569122,
                    0.013497689738869667,
                    -0.678776741027832,
                    0.001363170798867941,
                    -0.20998623967170715,
                    -0.20005252957344055,
                    0.06819750368595123,
                    -0.6399388313293457,
                    -0.15616729855537415,
                    -0.3209848701953888,
                    -0.16253186762332916,
                    0.3212081789970398,
                    -0.34238991141319275,
                    -0.06492015719413757,
                    -0.06427520513534546,
                    -0.3538750410079956,
                    0.13855628669261932,
                    -0.13320480287075043,
                    -0.04467573016881943,
                    0.18685907125473022,
                    -0.005310543812811375,
                    -0.2841714918613434,
                    -0.020670700818300247,
                    -0.045342110097408295,
                    -0.05425085872411728,
                    -0.09536205977201462,
                    0.01888802833855152,
                    0.061517927795648575,
                    0.10793411731719971,
                    -0.24767808616161346,
                    -0.30715033411979675,
                    0.24097464978694916,
                    0.1143195778131485,
                    -0.017811186611652374,
                    0.01963159441947937,
                    0.022459212690591812,
                    0.03025900572538376,
                    0.008607707917690277,
                    0.26172441244125366,
                    -0.009267644956707954,
                    -0.03299298509955406,
                    -0.03144429996609688,
                    -0.23804157972335815,
                    -0.30871784687042236,
                    -0.08627462387084961,
                    -0.25470757484436035,
                    0.29356443881988525,
                    -0.0005556235555559397,
                    -0.014775026589632034,
                    0.20637165009975433,
                    0.267523854970932,
                    0.07982226461172104,
                    0.03707346320152283,
                    0.21408402919769287,
                    0.07863318920135498,
                    -0.005570537876337767,
                    0.1720883548259735,
                    0.0781661868095398,
                    0.3723940849304199,
                    0.01578618213534355,
                    0.3147527277469635,
                    -0.05296937748789787,
                    0.2256237417459488,
                    -0.149840846657753,
                    0.0742645412683487,
                    -0.21269191801548004,
                    0.053106922656297684,
                    0.1303507536649704,
                    0.11913050711154938,
                    -0.03980490565299988,
                    -0.20513544976711273,
                    -0.16008611023426056,
                    -0.028051676228642464,
                    0.07633016258478165,
                    -0.0015907678753137589,
                    0.008140085265040398,
                    0.1716017723083496,
                    -0.08029591292142868,
                    -0.2075394243001938,
                    -0.23638512194156647,
                    0.20468297600746155,
                    -0.03229386731982231,
                    0.3440639078617096,
                    -0.07948616147041321,
                    0.05117775872349739,
                    -0.06848135590553284,
                    0.055183906108140945,
                    -0.08415904641151428,
                    -0.24760374426841736,
                    0.004567667376250029,
                    -0.19100293517112732,
                    -0.07744893431663513,
                    0.1435202956199646,
                    -0.09821745753288269,
                    0.10991661250591278,
                    0.04003708437085152,
                    -0.1952459067106247,
                    -3.7761565181426704e-05,
                    -0.2556343674659729,
                    0.18224315345287323,
                    0.20469219982624054,
                    0.2784106433391571,
                    -0.27347883582115173,
                    0.14859247207641602,
                    -0.017979901283979416,
                    -0.06910710036754608,
                    -0.07537683099508286,
                    0.35157716274261475,
                    0.020820798352360725,
                    -0.15605923533439636,
                    0.19204379618167877,
                    -0.14847658574581146,
                    -0.1457797884941101,
                    -0.2059006690979004,
                    0.15576162934303284,
                    0.019179031252861023,
                    0.011477861553430557,
                    0.03106371872127056,
                    -0.11293140798807144,
                    -0.09559483081102371,
                    0.060321908444166183,
                    0.2815200984477997,
                    -0.03841100633144379,
                    -0.1504320502281189,
                    0.2377464473247528,
                    -0.10563154518604279,
                    0.22673116624355316,
                    0.13790380954742432,
                    -0.03816739842295647,
                    -0.025405364111065865,
                    0.06635443866252899,
                    -0.30472129583358765,
                    0.2504386901855469,
                    -0.22669392824172974,
                    -0.2599422037601471,
                    -0.018757129088044167,
                    -0.08572028577327728,
                    0.11918196827173233,
                    0.2496146708726883,
                    0.26713964343070984,
                    0.1318860948085785,
                    -0.09290944784879684,
                    -0.27085745334625244,
                    -0.31386446952819824,
                    0.32437267899513245,
                    -0.027161799371242523,
                    -0.22877413034439087,
                    0.33526694774627686,
                    -0.3275584876537323,
                    -0.2978632152080536,
                    -0.3009141981601715,
                    -0.2896782159805298,
                    -0.21220673620700836,
                    -0.23190712928771973,
                    -0.13629412651062012,
                    0.07839395850896835,
                    0.3462286591529846,
                    -0.23623476922512054,
                    -0.2143612802028656,
                    0.3612152338027954,
                    0.2654435336589813,
                    0.31917834281921387,
                    0.05019654333591461,
                    -0.2377278208732605,
                    0.01048947311937809,
                    -0.03879222646355629,
                    0.33068063855171204,
                    0.42167043685913086,
                    0.36799100041389465,
                    0.08139140158891678,
                    -0.165714830160141,
                    -0.14488856494426727,
                    -0.15893463790416718,
                    -0.13045620918273926,
                    -0.3376869857311249,
                    0.3477160632610321,
                    0.09328607469797134,
                    0.20163577795028687,
                    0.20515145361423492,
                    0.2331935614347458,
                    0.37592241168022156,
                    0.1267249882221222,
                    0.32115840911865234,
                    -0.10307072848081589,
                    0.32706427574157715,
                    0.3323821425437927,
                    0.30128827691078186,
                    0.20993754267692566,
                    -0.20534886419773102,
                    0.3421183228492737,
                    0.327741801738739,
                    -0.3825506865978241,
                    0.05657430365681648,
                    -0.28636521100997925,
                    0.22519297897815704,
                    0.3140590786933899,
                    0.12200027704238892,
                    -0.2366837114095688,
                    -0.17744185030460358,
                    -0.2707293927669525,
                    -0.36944150924682617,
                    0.28769823908805847,
                    0.20876379311084747,
                    0.23533262312412262,
                    0.08046488463878632,
                    -0.3385173976421356,
                    -0.11492383480072021,
                    -0.37188103795051575,
                    0.2454894334077835,
                    0.14658784866333008,
                    0.29003486037254333,
                    -0.31011712551116943,
                    -0.20694021880626678,
                    -0.23765218257904053,
                    0.3584924340248108,
                    -0.1633397936820984,
                    -0.191446453332901,
                    -0.030910838395357132,
                    -0.3124864399433136,
                    -0.32196831703186035,
                    0.24786433577537537,
                    -0.21594667434692383,
                    0.12307003140449524,
                    0.3490520417690277,
                    0.007334582041949034,
                    0.3102438449859619,
                    -0.320980966091156,
                    0.21370874345302582,
                    0.14875759184360504,
                    0.38081419467926025,
                    -0.3153625726699829,
                    0.15341585874557495,
                    -0.13317498564720154,
                    -0.28577619791030884,
                    -0.16750982403755188,
                    0.05434801056981087,
                    0.23177210986614227,
                    0.08402830362319946,
                    0.19856205582618713,
                    -0.29317420721054077,
                    -0.27205073833465576,
                    -0.2108718752861023,
                    0.1029459610581398,
                    -0.12759318947792053,
                    0.01263736467808485,
                    0.1407454013824463,
                    -0.15056975185871124,
                    -0.24672116339206696,
                    0.23809799551963806,
                    0.08750305324792862,
                    0.37566274404525757,
                    -0.3531114459037781,
                    0.1702662855386734,
                    -0.37375539541244507,
                    0.3806520700454712,
                    0.24396973848342896,
                    -0.09557296335697174,
                    -0.339462548494339,
                    -0.1284671127796173,
                    -0.1461523324251175,
                    0.33217331767082214,
                    -0.15989236533641815,
                    -0.3853301405906677,
                    -0.25453510880470276,
                    0.1157514676451683,
                    0.11211995780467987,
                    0.36705970764160156,
                    -0.043668583035469055,
                    0.20771901309490204,
                    -0.23228877782821655,
                    -0.28094935417175293
                ],
                [
                    -0.015835195779800415,
                    0.05990101769566536,
                    -0.06906210631132126,
                    -0.04289368540048599,
                    -0.01432767789810896,
                    -0.13210128247737885,
                    -0.03853122889995575,
                    -0.08209013193845749,
                    -0.10626357793807983,
                    -0.031127052381634712,
                    -0.05324240401387215,
                    0.017999693751335144,
                    0.024563152343034744,
                    0.008994032628834248,
                    -0.06081077829003334,
                    -0.05056091025471687,
                    0.058021027594804764,
                    -0.019276348873972893,
                    0.05318883806467056,
                    0.005182154010981321,
                    -0.026130858808755875,
                    -0.23542048037052155,
                    -0.00640879524871707,
                    0.07328205555677414,
                    0.044063448905944824,
                    -0.012688634917140007,
                    -0.0811166763305664,
                    -0.07124974578619003,
                    -0.034533098340034485,
                    0.00017994889640249312,
                    -0.01754922792315483,
                    -0.02930387295782566,
                    -0.015583283267915249,
                    -0.001752188429236412,
                    -0.023989539593458176,
                    0.03372873738408089,
                    0.04961799085140228,
                    0.01843241974711418,
                    0.026177598163485527,
                    0.02195771224796772,
                    -0.02535245381295681,
                    0.024638725444674492,
                    -0.009102771058678627,
                    -0.009883244521915913,
                    -0.05958709120750427,
                    -0.1153695285320282,
                    -0.09878544509410858,
                    0.03862997889518738,
                    -0.15146228671073914,
                    -0.09394704550504684,
                    -0.0697685182094574,
                    0.014706006273627281,
                    0.04032339155673981,
                    -0.14621996879577637,
                    -0.0034864009357988834,
                    -0.07374922931194305,
                    -0.0707196518778801,
                    -0.021363789215683937,
                    0.027306966483592987,
                    -0.03551256284117699,
                    0.03691786900162697,
                    -0.009068967774510384,
                    -0.06600817292928696,
                    -0.011066398583352566,
                    -0.03844546154141426,
                    -0.016893865540623665,
                    0.0013809900265187025,
                    -0.03600655496120453,
                    -0.024405676871538162,
                    0.017949135974049568,
                    0.025199569761753082,
                    0.03404153510928154,
                    0.0024889004416763783,
                    -0.013635053299367428,
                    0.025070281699299812,
                    -0.047396015375852585,
                    -0.09584876894950867,
                    0.017620904371142387,
                    -0.04226631671190262,
                    -0.20155389606952667,
                    -0.03220270946621895,
                    0.045197296887636185,
                    -0.024223394691944122,
                    0.03673037886619568,
                    -0.022794485092163086,
                    -0.025071492418646812,
                    0.015156074427068233,
                    -0.027941090986132622,
                    0.003532003378495574,
                    -0.04303036630153656,
                    -0.278895765542984,
                    -0.017294500023126602,
                    -0.07283426076173782,
                    0.11837320774793625,
                    -0.051921308040618896,
                    -0.005801722407341003,
                    -0.07117614150047302,
                    -0.04071838781237602,
                    -0.09843654185533524,
                    0.0354827344417572,
                    -0.003511627670377493,
                    -0.15785843133926392,
                    -0.02027031034231186,
                    -0.04533945769071579,
                    -0.05787132680416107,
                    0.015181244350969791,
                    0.015476980246603489,
                    -0.06156821548938751,
                    -0.01101761870086193,
                    -0.043350644409656525,
                    -0.01792972907423973,
                    0.03642689064145088,
                    0.004249932710081339,
                    -0.010518920607864857,
                    -0.031982652842998505,
                    -0.017621304839849472,
                    -0.036207716912031174,
                    0.06245194002985954,
                    -0.024078702554106712,
                    -0.05180150270462036,
                    0.08426520228385925,
                    -0.07004152983427048,
                    0.010128656402230263,
                    0.031299129128456116,
                    -0.15502886474132538,
                    0.031027935445308685,
                    -0.012160463258624077,
                    -0.06196438893675804
                ]
            ]
        },
        {
            "name": "dense_1",
            "type": "Dense",
            "config": {
                "name": "dense_1",
                "trainable": true,
                "dtype": "float32",
                "units": 64,
                "activation": "sigmoid",
                "use_bias": true,
                "kernel_initializer": {
                    "class_name": "GlorotUniform",
                    "config": {
                        "seed": null
                    }
                },
                "bias_initializer": {
                    "class_name": "Zeros",
                    "config": {}
                },
                "kernel_regularizer": null,
                "bias_regularizer": null,
                "activity_regularizer": null,
                "kernel_constraint": null,
                "bias_constraint": null
            },
            "weights_shape": [
                "(128, 64)",
                "(64,)"
            ],
            "weights_flattened": [
                [
                    -0.14309900999069214,
                    0.12333999574184418,
                    -0.1395365297794342,
                    -0.09752830862998962,
                    -0.009973987005650997,
                    -0.1949189305305481,
                    0.06655796617269516,
                    -0.009572414681315422,
                    -0.22879807651042938,
                    0.21828249096870422,
                    0.17876951396465302,
                    0.061217740178108215,
                    -0.3069753646850586,
                    0.2607951760292053,
                    0.18051478266716003,
                    0.18991237878799438,
                    -0.026219593361020088,
                    0.022811293601989746,
                    0.004713156260550022,
                    0.17586006224155426,
                    -0.041625045239925385,
                    0.030739642679691315,
                    -0.061726730316877365,
                    -0.07234931737184525,
                    0.22086822986602783,
                    -0.02479732222855091,
                    0.16245456039905548,
                    -0.0925024002790451,
                    0.09476041793823242,
                    -0.055848319083452225,
                    0.01991088315844536,
                    -0.040461692959070206,
                    -0.18157152831554413,
                    -0.06322236359119415,
                    -0.020776156336069107,
                    -0.2556018829345703,
                    -0.04228764772415161,
                    0.12631534039974213,
                    0.18282826244831085,
                    0.05563144013285637,
                    -0.09582755714654922,
                    -0.19728194177150726,
                    -0.007393533829599619,
                    0.12685441970825195,
                    0.10893092304468155,
                    0.04166281223297119,
                    -0.25624218583106995,
                    0.08623617887496948,
                    -0.24079686403274536,
                    0.04903498664498329,
                    0.021943502128124237,
                    0.2739594578742981,
                    0.14546968042850494,
                    -0.0475369468331337,
                    -0.017225386574864388,
                    -0.053701251745224,
                    0.009668171405792236,
                    -0.03796077147126198,
                    -0.05464624986052513,
                    0.023235373198986053,
                    -0.2538924515247345,
                    0.05430348217487335,
                    -0.07550115138292313,
                    -0.07782492786645889,
                    0.27539822459220886,
                    0.03542938455939293,
                    -0.05380879342556,
                    0.14367711544036865,
                    0.06945826858282089,
                    -0.02533547393977642,
                    0.12108852714300156,
                    -0.2327519804239273,
                    0.11558710783720016,
                    0.17722828686237335,
                    0.02910325489938259,
                    -0.030265606939792633,
                    0.018097976222634315,
                    -0.09802365303039551,
                    0.007461605593562126,
                    -0.12422554194927216,
                    -0.05729764699935913,
                    0.1091364249587059,
                    -0.09064316749572754,
                    0.03216829523444176,
                    -0.16213788092136383,
                    0.23588787019252777,
                    0.16621191799640656,
                    -0.1187976598739624,
                    -0.02169473096728325,
                    -0.20546096563339233,
                    -0.2061253786087036,
                    0.010058753192424774,
                    -0.24209028482437134,
                    0.03732384741306305,
                    -0.09854316711425781,
                    -0.09648305177688599,
                    -0.10745156556367874,
                    0.015370219945907593,
                    0.01879369653761387,
                    0.22968891263008118,
                    0.20757275819778442,
                    -0.049341462552547455,
                    0.09664807468652725,
                    -0.05653955787420273,
                    0.16097362339496613,
                    0.1288129836320877,
                    0.02362489141523838,
                    0.14800146222114563,
                    -0.23032429814338684,
                    0.003323183162137866,
                    0.07055503875017166,
                    -0.19805598258972168,
                    0.17013883590698242,
                    -0.25954025983810425,
                    0.3474471867084503,
                    0.12946411967277527,
                    -0.07466303557157516,
                    0.08110009878873825,
                    -0.11553604900836945,
                    0.09095871448516846,
                    0.03746204450726509,
                    0.22453218698501587,
                    0.254569947719574,
                    0.18856117129325867,
                    0.06969166547060013,
                    -0.04027450829744339,
                    0.3492051064968109,
                    -0.3155449330806732,
                    -0.12661854922771454,
                    -0.12187166512012482,
                    0.14309509098529816,
                    0.020700301975011826,
                    -0.09115798026323318,
                    -0.07315217703580856,
                    0.12925595045089722,
                    0.12202959507703781,
                    -0.19659386575222015,
                    0.0749487429857254,
                    0.1237863227725029,
                    -0.17751508951187134,
                    0.018853824585676193,
                    -0.059566985815763474,
                    0.06634726375341415,
                    -0.021968284621834755,
                    -0.12875105440616608,
                    -0.12987658381462097,
                    0.06232427433133125,
                    0.07864643633365631,
                    0.08222012221813202,
                    -0.0643991157412529,
                    0.14292265474796295,
                    -0.08701197803020477,
                    -0.05450674146413803,
                    -0.017404679208993912,
                    -0.02300003357231617,
                    -0.12587498128414154,
                    -0.0791177898645401,
                    0.12236841022968292,
                    0.08276143670082092,
                    0.04187742993235588,
                    -0.20037318766117096,
                    0.13480611145496368,
                    -0.15681838989257812,
                    -0.015786252915859222,
                    -0.051514822989702225,
                    0.1742364764213562,
                    0.1754056215286255,
                    -0.11579698324203491,
                    -0.06878485530614853,
                    -0.023521706461906433,
                    0.07170910388231277,
                    0.015872877091169357,
                    -0.11969880759716034,
                    0.19283658266067505,
                    0.09334762394428253,
                    0.028771735727787018,
                    -0.004844794049859047,
                    0.13054779171943665,
                    0.028301237151026726,
                    0.04047340154647827,
                    0.07564285397529602,
                    0.14831414818763733,
                    -0.032375991344451904,
                    -0.09698743373155594,
                    0.006800597533583641,
                    0.06377731263637543,
                    -0.16344793140888214,
                    0.10157043486833572,
                    0.02418532595038414,
                    0.005086623597890139,
                    0.08518817275762558,
                    -0.027308037504553795,
                    0.002855983329936862,
                    -0.13745956122875214,
                    -0.15647147595882416,
                    0.0780889019370079,
                    -0.13006635010242462,
                    -0.1201249286532402,
                    0.21504944562911987,
                    0.1947377473115921,
                    -0.2013249695301056,
                    -0.13197162747383118,
                    -0.0616343654692173,
                    -0.002403747523203492,
                    0.08772455155849457,
                    0.18751709163188934,
                    -0.07178926467895508,
                    0.10520532727241516,
                    -0.004015634302049875,
                    -0.09967529028654099,
                    0.12430215626955032,
                    -0.053605757653713226,
                    0.08040717989206314,
                    0.09767861664295197,
                    -0.06622785329818726,
                    -0.14425894618034363,
                    0.02953200601041317,
                    -0.06889797002077103,
                    0.17751172184944153,
                    0.12046858668327332,
                    0.06265770643949509,
                    -0.031111640855669975,
                    -0.21348349750041962,
                    -0.002133181318640709,
                    -0.17916357517242432,
                    -0.044195808470249176,
                    -0.1175185814499855,
                    -0.023598337545990944,
                    0.08072273433208466,
                    -0.09405511617660522,
                    -0.12514819204807281,
                    -0.12555301189422607,
                    0.02680763602256775,
                    -0.041896216571331024,
                    -0.10153882950544357,
                    0.04134839400649071,
                    -0.0825432687997818,
                    0.17215953767299652,
                    0.116774782538414,
                    -0.009765049442648888,
                    -0.1536819487810135,
                    -0.024215642362833023,
                    0.09590411186218262,
                    0.10052228718996048,
                    0.05506239831447601,
                    -0.13615593314170837,
                    0.10761668533086777,
                    -0.04817013815045357,
                    -0.004134769551455975,
                    -0.17902489006519318,
                    -0.04652714356780052,
                    -0.10047978162765503,
                    -0.10232783108949661,
                    0.12743288278579712,
                    0.03160630539059639,
                    0.16604891419410706,
                    0.2912595570087433,
                    -0.09492192417383194,
                    0.1581066995859146,
                    0.07359889894723892,
                    -0.021836012601852417,
                    0.07937994599342346,
                    -0.16145631670951843,
                    0.04262655973434448,
                    0.11497922986745834,
                    0.031673457473516464,
                    -0.04952632263302803,
                    -0.028269650414586067,
                    0.028927981853485107,
                    -0.2255122810602188,
                    -0.23709532618522644,
                    -0.2585553824901581,
                    -0.05423654615879059,
                    -0.019563091918826103,
                    0.22761575877666473,
                    -0.07875143736600876,
                    -0.23545417189598083,
                    0.275710791349411,
                    0.23649105429649353,
                    0.02959633804857731,
                    -0.14644066989421844,
                    -0.11108700931072235,
                    -0.2594601809978485,
                    -0.2872648239135742,
                    -0.2909289300441742,
                    -0.043222393840551376,
                    0.06008749082684517,
                    -0.2082148939371109,
                    0.10696307569742203,
                    -0.026853352785110474,
                    -0.09513363987207413,
                    -0.03336520865559578,
                    -0.028141943737864494,
                    -0.2631174623966217,
                    0.1868334412574768,
                    -0.23948389291763306,
                    0.021817505359649658,
                    0.17293386161327362,
                    0.2734178602695465,
                    0.006368337199091911,
                    -0.11917534470558167,
                    -0.17549492418766022,
                    0.2062191218137741,
                    -0.17503228783607483,
                    0.16082529723644257,
                    -0.2697649300098419,
                    -0.06914269179105759,
                    -0.06754615157842636,
                    -0.11020305752754211,
                    -0.0664992704987526,
                    -0.10185258090496063,
                    0.22917668521404266,
                    -0.04570987448096275,
                    0.09088000655174255,
                    0.06970203667879105,
                    0.21699818968772888,
                    0.16597114503383636,
                    -0.2092706263065338,
                    0.17645032703876495,
                    -0.07617659866809845,
                    0.11398893594741821,
                    -0.10985016822814941,
                    0.024563275277614594,
                    -0.18109916150569916,
                    -0.0014830096624791622,
                    0.014644194394350052,
                    0.017574965953826904,
                    0.014669314958155155,
                    -0.06407498568296432,
                    0.055745597928762436,
                    -0.009127289988100529,
                    -0.040211476385593414,
                    0.14512184262275696,
                    -0.15423080325126648,
                    0.1728665828704834,
                    0.16575683653354645,
                    0.12150061130523682,
                    -0.18128953874111176,
                    -0.09120747447013855,
                    0.16368865966796875,
                    -0.09008227288722992,
                    0.002738409675657749,
                    0.011308827437460423,
                    -0.03402884304523468,
                    0.1528169959783554,
                    0.016676176339387894,
                    0.09524443000555038,
                    0.1466364860534668,
                    0.05305160954594612,
                    -0.16354885697364807,
                    0.05631677433848381,
                    -0.07187795639038086,
                    -0.0676816925406456,
                    0.08755690604448318,
                    0.14256761968135834,
                    -0.07227233052253723,
                    -0.01918424293398857,
                    -0.059413034468889236,
                    -0.021819058805704117,
                    0.051297396421432495,
                    0.0931473970413208,
                    -0.10250885039567947,
                    -0.11938067525625229,
                    -0.08719149231910706,
                    0.1458577811717987,
                    -0.0018665635725483298,
                    0.12416131049394608,
                    -0.13742950558662415,
                    -0.005425604060292244,
                    0.1437927782535553,
                    0.03232422471046448,
                    -0.14376620948314667,
                    -0.049749456346035004,
                    0.073965884745121,
                    0.00685094902291894,
                    0.07461410760879517,
                    -0.04130898416042328,
                    -0.1366168111562729,
                    -0.13167420029640198,
                    -0.1344100534915924,
                    -0.1672569215297699,
                    0.0022702657151967287,
                    -0.20573116838932037,
                    0.16363120079040527,
                    -0.05633581057190895,
                    0.19989822804927826,
                    -0.1902475357055664,
                    -0.07494577020406723,
                    0.11605551093816757,
                    -0.00490870326757431,
                    0.21219882369041443,
                    -0.039188746362924576,
                    -0.12517043948173523,
                    -0.003704547183588147,
                    -0.11948412656784058,
                    -0.03779072314500809,
                    -0.2356751561164856,
                    -0.047176916152238846,
                    -0.07896574586629868,
                    0.05793292820453644,
                    -0.12095614522695541,
                    -0.023064179345965385,
                    -0.10956534743309021,
                    0.1565043032169342,
                    -0.02592906728386879,
                    -0.0953788310289383,
                    -0.04853048175573349,
                    -0.005695616360753775,
                    0.0824512392282486,
                    -0.10960367321968079,
                    0.11576752364635468,
                    -0.1200321763753891,
                    -0.04546700045466423,
                    -0.1511133462190628,
                    -0.09480544924736023,
                    0.036618009209632874,
                    -0.1439470797777176,
                    -0.10503007471561432,
                    0.03917878866195679,
                    -0.14630798995494843,
                    -0.0963427796959877,
                    0.19675298035144806,
                    -0.01421883050352335,
                    0.12492691725492477,
                    -0.03153269365429878,
                    -0.13037237524986267,
                    -0.09302058815956116,
                    0.1960018426179886,
                    0.1964392066001892,
                    -0.07759474962949753,
                    -0.242433562874794,
                    -0.053456053137779236,
                    0.11648707836866379,
                    0.15575182437896729,
                    0.019404854625463486,
                    -0.0408911406993866,
                    0.17629794776439667,
                    0.060650307685136795,
                    0.23526155948638916,
                    0.05241214483976364,
                    -0.03641830012202263,
                    0.03512641414999962,
                    0.1127244085073471,
                    0.05380035191774368,
                    0.03763846680521965,
                    0.04586402326822281,
                    0.131477490067482,
                    -0.126344233751297,
                    -0.18480174243450165,
                    0.202346533536911,
                    -0.05529887229204178,
                    -0.16833791136741638,
                    -0.20958146452903748,
                    -0.018761517480015755,
                    0.08397050946950912,
                    0.035816531628370285,
                    -0.06071808561682701,
                    0.13701209425926208,
                    0.16382074356079102,
                    -0.16840985417366028,
                    -0.039305854588747025,
                    0.04909580573439598,
                    -0.06127466261386871,
                    0.1170523539185524,
                    0.21587581932544708,
                    -0.15414008498191833,
                    -0.11582640558481216,
                    -0.009596816264092922,
                    0.13247117400169373,
                    -0.022162970155477524,
                    -0.15477728843688965,
                    -0.16189318895339966,
                    0.01101511437445879,
                    -0.07303964346647263,
                    0.16780659556388855,
                    0.09142116457223892,
                    0.13282018899917603,
                    -0.10489914566278458,
                    0.044084977358579636,
                    0.06281134486198425,
                    0.03594774380326271,
                    0.23270325362682343,
                    -0.06839055567979813,
                    -0.03140148147940636,
                    -0.16868856549263,
                    0.21069008111953735,
                    -0.13624007999897003,
                    -0.056015368551015854,
                    -0.20543906092643738,
                    0.10330919176340103,
                    -0.14835527539253235,
                    0.056852661073207855,
                    0.1602688580751419,
                    0.22703878581523895,
                    -0.2020106166601181,
                    0.0688101276755333,
                    0.06620021164417267,
                    0.015680253505706787,
                    -0.025684170424938202,
                    -0.08897651731967926,
                    0.1903722733259201,
                    0.2218400090932846,
                    0.17789685726165771,
                    0.0649285688996315,
                    0.04873014986515045,
                    -0.21270981431007385,
                    0.016006898134946823,
                    0.005746412090957165,
                    -0.011305666528642178,
                    -0.10364510864019394,
                    -0.2175123393535614,
                    0.23371522128582,
                    -0.07096122950315475,
                    0.16373267769813538,
                    -0.20196369290351868,
                    -0.16980618238449097,
                    0.08869989961385727,
                    -0.16249379515647888,
                    0.17254069447517395,
                    -0.10636555403470993,
                    0.04495219141244888,
                    -0.09348633885383606,
                    -0.0862896516919136,
                    0.040169935673475266,
                    0.10465603321790695,
                    0.09210599213838577,
                    0.14376255869865417,
                    -0.05622481554746628,
                    0.040232427418231964,
                    -0.09832783043384552,
                    -0.21278537809848785,
                    0.033907994627952576,
                    0.1248444989323616,
                    -0.07577131688594818,
                    -0.11543089896440506,
                    -0.06028217449784279,
                    -0.12743712961673737,
                    -0.1367906630039215,
                    -0.0517716221511364,
                    -0.12347898632287979,
                    -0.13272792100906372,
                    0.16108733415603638,
                    0.08999121934175491,
                    0.0706140547990799,
                    -0.15504856407642365,
                    -0.141163170337677,
                    -0.10599666833877563,
                    0.02171885222196579,
                    -0.008380553685128689,
                    0.1315077841281891,
                    -0.08534643054008484,
                    0.1446719914674759,
                    -0.031008977442979813,
                    0.08506541699171066,
                    0.07040960341691971,
                    0.12339367717504501,
                    0.08159073442220688,
                    0.0042095365934073925,
                    0.0005071244668215513,
                    0.1172805204987526,
                    0.09604846686124802,
                    0.06004638597369194,
                    0.08482258021831512,
                    0.12525349855422974,
                    0.08115208894014359,
                    0.17364473640918732,
                    0.14665989577770233,
                    0.0514066256582737,
                    0.1412087082862854,
                    0.021747687831521034,
                    -0.12314517796039581,
                    -0.07832469046115875,
                    -0.05285194516181946,
                    0.0989396721124649,
                    0.05451474338769913,
                    -0.1189059317111969,
                    -0.08579380065202713,
                    0.15722709894180298,
                    0.02456682175397873,
                    0.10595601052045822,
                    -0.04365713521838188,
                    -0.22069597244262695,
                    -0.08645149320363998,
                    -0.020122919231653214,
                    -0.024413466453552246,
                    -0.07011066377162933,
                    0.1885334998369217,
                    0.09232377260923386,
                    -0.17257656157016754,
                    0.1038680300116539,
                    0.15498274564743042,
                    -0.07859984040260315,
                    -0.04789920523762703,
                    -0.04953748360276222,
                    -0.05248888209462166,
                    0.15263709425926208,
                    0.2212451994419098,
                    0.11436955630779266,
                    -0.07229944318532944,
                    -0.236070454120636,
                    0.054844994097948074,
                    0.10397356003522873,
                    -0.0164355356246233,
                    -0.06987366080284119,
                    -0.009427886456251144,
                    -0.045141205191612244,
                    -0.11660879105329514,
                    0.05142556130886078,
                    -0.0075402515940368176,
                    0.19125665724277496,
                    0.05951220914721489,
                    -0.07552028447389603,
                    -0.07259060442447662,
                    0.14319539070129395,
                    -0.043172284960746765,
                    -0.061854977160692215,
                    -0.07197413593530655,
                    -0.15291091799736023,
                    -0.18526215851306915,
                    0.12795281410217285,
                    0.10645224153995514,
                    0.17522422969341278,
                    -0.16759349405765533,
                    0.16138409078121185,
                    -0.014575465582311153,
                    -0.16164012253284454,
                    -0.05683373287320137,
                    -0.07330772280693054,
                    0.07583773881196976,
                    0.0034482136834412813,
                    -0.019101521000266075,
                    0.09003719687461853,
                    0.029825733974575996,
                    0.032157052308321,
                    0.09549232572317123,
                    0.08224993944168091,
                    0.05868435651063919,
                    -0.10447537899017334,
                    -0.1061943843960762,
                    -0.01936766691505909,
                    0.06825441867113113,
                    0.1397462636232376,
                    -0.20331841707229614,
                    -0.12226659804582596,
                    0.11212451756000519,
                    -0.13289813697338104,
                    0.15791122615337372,
                    0.11212832480669022,
                    -0.14162641763687134,
                    -0.13743701577186584,
                    0.16866374015808105,
                    -0.04506372660398483,
                    -0.13064350187778473,
                    -0.02319205179810524,
                    0.0039236354641616344,
                    0.031643811613321304,
                    -0.02501876838505268,
                    -0.016293449327349663,
                    -0.1302221566438675,
                    0.04045866057276726,
                    0.02273564040660858,
                    0.04181147366762161,
                    -0.1562691181898117,
                    -0.13163462281227112,
                    -0.003411865560337901,
                    0.11918166279792786,
                    -0.10803784430027008,
                    0.0443555973470211,
                    -0.056889891624450684,
                    0.0051281447522342205,
                    -0.030360890552401543,
                    -0.12134815007448196,
                    0.09088002145290375,
                    0.2050914466381073,
                    -0.10485634952783585,
                    0.006451214663684368,
                    -0.2452121078968048,
                    0.12666144967079163,
                    0.08274494111537933,
                    -0.03158065676689148,
                    -0.20878565311431885,
                    -0.03375459089875221,
                    -0.1549406200647354,
                    -0.08231817185878754,
                    0.1093093678355217,
                    0.016134684905409813,
                    -0.038112808018922806,
                    -0.07278196513652802,
                    -0.21351006627082825,
                    0.007003797218203545,
                    -0.1894054114818573,
                    0.07511846721172333,
                    -0.10678931325674057,
                    0.06125599890947342,
                    0.014580393210053444,
                    0.046266235411167145,
                    0.117753766477108,
                    -0.19298508763313293,
                    -0.12136393785476685,
                    -0.168780118227005,
                    -0.17365512251853943,
                    -0.0473690927028656,
                    0.00778727512806654,
                    0.14202584326267242,
                    -0.07501961290836334,
                    -0.019192693755030632,
                    -0.09588232636451721,
                    0.04896029084920883,
                    -0.1656121015548706,
                    -0.2421729564666748,
                    0.18026994168758392,
                    0.21134941279888153,
                    -0.21738003194332123,
                    0.11009178310632706,
                    -0.06863946467638016,
                    -0.151415154337883,
                    -0.25029832124710083,
                    0.19721873104572296,
                    0.1760229766368866,
                    0.02147030644118786,
                    0.05362764373421669,
                    -0.09120272099971771,
                    -0.17954407632350922,
                    -0.14870569109916687,
                    -0.025969216600060463,
                    -0.003334292909130454,
                    0.051210347563028336,
                    -0.17309731245040894,
                    0.2716350555419922,
                    0.09068379551172256,
                    0.1342066377401352,
                    -0.018183782696723938,
                    0.07549358904361725,
                    -0.048792943358421326,
                    -0.07491035759449005,
                    0.09720869362354279,
                    -0.19165094196796417,
                    0.006604303605854511,
                    -0.07707282900810242,
                    0.0778888389468193,
                    -0.18829195201396942,
                    -0.07416053116321564,
                    0.06161094456911087,
                    -0.14488062262535095,
                    -0.042619191110134125,
                    -0.006745314225554466,
                    0.07090702652931213,
                    -0.00011867743160109967,
                    0.15074841678142548,
                    0.22311648726463318,
                    -0.0494256392121315,
                    0.07689488679170609,
                    0.07055380195379257,
                    0.09113699942827225,
                    0.149806946516037,
                    0.1763799637556076,
                    0.21097531914710999,
                    0.1356576830148697,
                    -0.060655295848846436,
                    -0.06636767834424973,
                    0.06675732135772705,
                    -0.1144215390086174,
                    0.028195757418870926,
                    -0.04802627116441727,
                    -0.0006395438103936613,
                    0.1834309697151184,
                    0.14181260764598846,
                    -0.15349212288856506,
                    0.2088633030653,
                    -0.038366787135601044,
                    -0.06396743655204773,
                    0.18240921199321747,
                    0.23132860660552979,
                    -0.16215814650058746,
                    -0.02398614026606083,
                    -0.005414991173893213,
                    0.025836961343884468,
                    -0.0049131265841424465,
                    0.040607426315546036,
                    -0.11933781951665878,
                    -0.06497123092412949,
                    -0.13920773565769196,
                    -0.2253662496805191,
                    -0.13707467913627625,
                    0.06993689388036728,
                    0.11519485712051392,
                    0.08427561819553375,
                    -0.06894499808549881,
                    0.07332313060760498,
                    0.15186265110969543,
                    0.19762806594371796,
                    -0.24951592087745667,
                    -0.0013316755648702383,
                    -0.10026641190052032,
                    -0.15861091017723083,
                    -0.14102491736412048,
                    -0.0748177245259285,
                    -0.06475451588630676,
                    0.0900762751698494,
                    -0.05527394637465477,
                    -0.03150254487991333,
                    0.03692638501524925,
                    -0.15970146656036377,
                    0.11293317377567291,
                    -0.0971493199467659,
                    -0.19368647038936615,
                    -0.13991126418113708,
                    -0.2409917563199997,
                    -0.10959828644990921,
                    0.18850091099739075,
                    0.017346685752272606,
                    -0.09456741064786911,
                    -0.0022991665173321962,
                    -0.09295108169317245,
                    -0.09944210946559906,
                    0.07749846577644348,
                    -0.05326761677861214,
                    -0.022770456969738007,
                    0.09687764942646027,
                    0.010287204757332802,
                    -0.07065612077713013,
                    -0.2322181612253189,
                    0.10691633820533752,
                    0.011273817159235477,
                    0.10036282986402512,
                    -0.04148992896080017,
                    -0.070701003074646,
                    0.20633108913898468,
                    -0.008995200507342815,
                    -0.046800967305898666,
                    0.15695808827877045,
                    -0.26222482323646545,
                    0.04885219410061836,
                    -0.26543399691581726,
                    0.1455264836549759,
                    0.09347233921289444,
                    0.02080630324780941,
                    -0.0421941839158535,
                    -0.1795942783355713,
                    -0.027051378041505814,
                    0.16353774070739746,
                    -0.06180001422762871,
                    0.05375075340270996,
                    -0.22267524898052216,
                    -0.10488105565309525,
                    0.02021739073097706,
                    -0.20166492462158203,
                    0.05621141567826271,
                    -0.16814322769641876,
                    0.05011606961488724,
                    -0.0007547808927483857,
                    -0.043701887130737305,
                    -0.0478999987244606,
                    0.05570727959275246,
                    0.17060472071170807,
                    -0.12576165795326233,
                    -0.06155560538172722,
                    0.002604530891403556,
                    -0.10968570411205292,
                    -0.16260600090026855,
                    -0.18953490257263184,
                    0.027713553979992867,
                    0.1406160145998001,
                    0.006310800556093454,
                    -0.12556739151477814,
                    -0.06105436384677887,
                    -0.19503912329673767,
                    0.11548313498497009,
                    -0.1159784123301506,
                    0.005162806715816259,
                    -0.10593819618225098,
                    -0.09075085073709488,
                    -0.09595240652561188,
                    0.2342202216386795,
                    0.1200399100780487,
                    -0.19946156442165375,
                    -0.18369416892528534,
                    -0.01962966099381447,
                    0.2190670371055603,
                    0.05437224730849266,
                    0.026704860851168633,
                    -0.15365272760391235,
                    0.133734792470932,
                    0.12430883198976517,
                    -0.058530110865831375,
                    -0.0071650161407887936,
                    0.13347698748111725,
                    0.1299894005060196,
                    0.011598278768360615,
                    0.12409082055091858,
                    0.21465718746185303,
                    0.23515893518924713,
                    0.12633326649665833,
                    0.03890744596719742,
                    -0.003656080923974514,
                    -0.19318604469299316,
                    -0.08510017395019531,
                    -0.04365162178874016,
                    -0.07449980080127716,
                    -0.17056895792484283,
                    0.00948571041226387,
                    -0.016842855140566826,
                    0.22727002203464508,
                    -0.0004456726019270718,
                    -0.10806276649236679,
                    0.02633092738687992,
                    0.07748107612133026,
                    0.09335878491401672,
                    -0.09211902320384979,
                    0.053439874202013016,
                    0.2303803414106369,
                    0.1387852132320404,
                    -0.05493007227778435,
                    0.0037585871759802103,
                    -0.10248406231403351,
                    -0.1277230829000473,
                    0.19198523461818695,
                    -0.18908172845840454,
                    0.07977663725614548,
                    -0.14620845019817352,
                    0.11578229069709778,
                    0.05225089564919472,
                    0.23111318051815033,
                    0.10794270783662796,
                    -0.010909399949014187,
                    -0.031163398176431656,
                    -0.14674249291419983,
                    -0.17297625541687012,
                    -0.09903500229120255,
                    0.0036043138243258,
                    0.08478566259145737,
                    -0.04023052006959915,
                    -0.13453182578086853,
                    -0.09231265634298325,
                    0.02538640983402729,
                    0.19324657320976257,
                    -0.21400626003742218,
                    0.0221798624843359,
                    -0.07376432418823242,
                    0.06078698858618736,
                    0.24881896376609802,
                    0.19496506452560425,
                    -0.19939802587032318,
                    0.02105340175330639,
                    -0.22189444303512573,
                    0.09083236753940582,
                    -0.085652656853199,
                    0.24487969279289246,
                    0.06984953582286835,
                    0.016846470534801483,
                    -0.040947478264570236,
                    -0.12069161236286163,
                    -0.031693387776613235,
                    0.01990770921111107,
                    -0.07099409401416779,
                    0.07525947690010071,
                    0.04440879449248314,
                    0.17989540100097656,
                    -0.09327498078346252,
                    -0.04396466538310051,
                    -0.24882979691028595,
                    -0.08509596437215805,
                    -0.20579181611537933,
                    -0.15598498284816742,
                    -0.1382373422384262,
                    -0.23997843265533447,
                    0.09131283313035965,
                    0.041572727262973785,
                    -0.16167494654655457,
                    0.12188185006380081,
                    0.2212119698524475,
                    0.06286285072565079,
                    -0.07768677175045013,
                    0.09155574440956116,
                    -0.05171668529510498,
                    0.014102702960371971,
                    0.06698969006538391,
                    -0.20447830855846405,
                    -0.1593441218137741,
                    0.019717536866664886,
                    0.19792544841766357,
                    -0.21038295328617096,
                    -0.1545952409505844,
                    -0.10880259424448013,
                    0.21954268217086792,
                    0.2613232433795929,
                    0.17770543694496155,
                    -0.05482878163456917,
                    0.023741450160741806,
                    -0.25362342596054077,
                    -0.29249659180641174,
                    0.03950086236000061,
                    -0.12982043623924255,
                    0.1978616565465927,
                    0.1327182799577713,
                    -0.19942347705364227,
                    -0.2142297774553299,
                    -0.04112057015299797,
                    0.22749264538288116,
                    -0.06545034795999527,
                    -0.11113565415143967,
                    0.03468765690922737,
                    -0.08087848126888275,
                    -0.10735800862312317,
                    0.1808283030986786,
                    0.1614558845758438,
                    0.011068735271692276,
                    0.2700961232185364,
                    -0.05091075226664543,
                    0.0445396788418293,
                    -0.018236322328448296,
                    0.12063296884298325,
                    -0.0052434420213103294,
                    0.0720679834485054,
                    -0.08523513376712799,
                    0.015180421993136406,
                    0.06175227835774422,
                    -0.009490704163908958,
                    -0.10959528386592865,
                    -0.23551222681999207,
                    0.00028377032140269876,
                    0.11629191786050797,
                    0.05803743749856949,
                    0.16181370615959167,
                    0.31683972477912903,
                    -0.22837138175964355,
                    -0.12696222960948944,
                    -0.0691550076007843,
                    0.2902767062187195,
                    -0.004372975789010525,
                    0.0358695462346077,
                    -0.22505168616771698,
                    0.22411175072193146,
                    -0.006867464631795883,
                    -0.2874617278575897,
                    0.07725699245929718,
                    0.1905464231967926,
                    -0.09397049248218536,
                    -0.33611732721328735,
                    0.054035089910030365,
                    -0.03134401515126228,
                    0.34821924567222595,
                    -0.02967015840113163,
                    -0.001101509784348309,
                    -0.17008991539478302,
                    0.24037066102027893,
                    0.02101787179708481,
                    -0.0844322219491005,
                    0.09375990182161331,
                    -0.09881582856178284,
                    -0.044597726315259933,
                    -0.2670343518257141,
                    -0.29334163665771484,
                    0.10187409073114395,
                    0.019810480996966362,
                    0.022194910794496536,
                    0.1887451708316803,
                    -0.10459402948617935,
                    -0.0728127583861351,
                    0.02067708969116211,
                    -0.012179265730082989,
                    -0.2668728232383728,
                    0.16328758001327515,
                    0.014465169049799442,
                    0.17512238025665283,
                    0.2678198516368866,
                    0.2342817634344101,
                    -0.054418329149484634,
                    -0.17129634320735931,
                    -0.239803746342659,
                    0.25062933564186096,
                    -0.19951000809669495,
                    0.1780170351266861,
                    -0.16301143169403076,
                    0.3173886835575104,
                    -0.1741981953382492,
                    -0.10086581856012344,
                    0.023760678246617317,
                    0.17880786955356598,
                    -0.08126555383205414,
                    -0.03842274472117424,
                    0.07690215855836868,
                    0.2545517086982727,
                    0.10959306359291077,
                    0.18864387273788452,
                    -0.28957200050354004,
                    0.10639065504074097,
                    -0.2803591191768646,
                    0.12739816308021545,
                    -0.06805379688739777,
                    0.194590762257576,
                    -0.11959689855575562,
                    0.021272335201501846,
                    0.1118817925453186,
                    -0.2578158378601074,
                    -0.17121900618076324,
                    0.15917715430259705,
                    -0.09151557832956314,
                    0.046873997896909714,
                    -0.039955269545316696,
                    0.14936378598213196,
                    0.025148220360279083,
                    -0.23622693121433258,
                    -0.239404559135437,
                    -0.1320185661315918,
                    0.08414427191019058,
                    0.10502137988805771,
                    -0.06143514811992645,
                    0.029785681515932083,
                    0.260448694229126,
                    0.14472362399101257,
                    0.03314821794629097,
                    -0.15853846073150635,
                    -0.2743679881095886,
                    -0.2038896679878235,
                    -0.26010456681251526,
                    -0.11392954736948013,
                    0.13389039039611816,
                    -0.03324677795171738,
                    0.020938459783792496,
                    -0.03915751352906227,
                    -0.045169148594141006,
                    0.012269970029592514,
                    0.1747245192527771,
                    0.03835280239582062,
                    0.010831033810973167,
                    0.052134908735752106,
                    -0.25961533188819885,
                    0.03992505744099617,
                    -0.037625037133693695,
                    0.18905240297317505,
                    -0.0994630828499794,
                    -0.12947431206703186,
                    -0.00946871843189001,
                    0.17196272313594818,
                    -0.2788524925708771,
                    -0.06294599175453186,
                    -0.25036224722862244,
                    -0.016303133219480515,
                    -0.12883664667606354,
                    -0.23533444106578827,
                    -0.20869459211826324,
                    -0.029962005093693733,
                    -0.016873400658369064,
                    -0.27659910917282104,
                    -0.06558658182621002,
                    0.075401671230793,
                    0.11207578331232071,
                    0.1277933418750763,
                    -0.0465884692966938,
                    -0.013304086402058601,
                    -0.00984459649771452,
                    -0.05746564641594887,
                    -0.2786429226398468,
                    -0.1145068034529686,
                    -0.08144207298755646,
                    -0.04061499983072281,
                    -0.05325401574373245,
                    -0.08165788650512695,
                    -0.12976741790771484,
                    0.015112134627997875,
                    0.005585554987192154,
                    -0.1840071827173233,
                    -0.023043524473905563,
                    0.16883914172649384,
                    -0.18489347398281097,
                    -0.017578117549419403,
                    -0.13255533576011658,
                    -0.20742397010326385,
                    0.06859195977449417,
                    -0.0001776178542058915,
                    -0.08243390172719955,
                    -0.11967364698648453,
                    0.29412394762039185,
                    0.19166016578674316,
                    -0.15675193071365356,
                    -0.10976025462150574,
                    -0.2592916786670685,
                    -0.23869657516479492,
                    -0.05043480172753334,
                    -0.11486989259719849,
                    0.08702006191015244,
                    0.12904803454875946,
                    -0.0007715317187830806,
                    -0.1641077697277069,
                    -0.021338418126106262,
                    -0.15422827005386353,
                    -0.04571397230029106,
                    0.014525825157761574,
                    -0.1499553769826889,
                    -0.016517000272870064,
                    -0.03777795657515526,
                    0.0038818982429802418,
                    -0.014279988594353199,
                    0.18186849355697632,
                    -0.18928252160549164,
                    0.09281975030899048,
                    -0.20967628061771393,
                    0.08522794395685196,
                    -0.1876494437456131,
                    -0.00809910986572504,
                    0.027136821299791336,
                    0.2982858717441559,
                    0.15122124552726746,
                    0.0728120505809784,
                    -0.14809343218803406,
                    -0.0866096019744873,
                    -0.016952622681856155,
                    0.05216554179787636,
                    0.2605401277542114,
                    0.12676332890987396,
                    0.1855756789445877,
                    0.3577539324760437,
                    -0.12650500237941742,
                    0.1582660675048828,
                    -0.27599194645881653,
                    0.23556864261627197,
                    0.09057185053825378,
                    -0.10435520112514496,
                    -0.08916575461626053,
                    -0.018396111205220222,
                    -0.007362691685557365,
                    0.08816691488027573,
                    -0.23717643320560455,
                    0.08685332536697388,
                    0.004349333234131336,
                    -0.031933579593896866,
                    -0.03840525075793266,
                    0.0034535459708422422,
                    -0.04713261127471924,
                    -0.08943043649196625,
                    -0.0514916256070137,
                    -0.12565675377845764,
                    0.25472280383110046,
                    0.08242840319871902,
                    0.07105895131826401,
                    0.022061171010136604,
                    0.24018876254558563,
                    -0.08053941279649734,
                    -0.06825760006904602,
                    0.15356191992759705,
                    -0.08900325745344162,
                    0.060773495584726334,
                    0.07398322969675064,
                    -0.1740259826183319,
                    -0.05579465627670288,
                    0.06444308906793594,
                    -0.03955544903874397,
                    -0.07357390969991684,
                    -0.06014025956392288,
                    0.14730753004550934,
                    0.1522313803434372,
                    0.1845051348209381,
                    -0.21461501717567444,
                    0.14430634677410126,
                    0.018818888813257217,
                    -0.09173958003520966,
                    -0.02893030270934105,
                    0.05052539333701134,
                    0.047288231551647186,
                    -0.19662122428417206,
                    -0.05183349549770355,
                    -0.12272030115127563,
                    0.0430762805044651,
                    -0.00545042660087347,
                    -0.1975703239440918,
                    0.15489743649959564,
                    -0.15313668549060822,
                    -0.011946521699428558,
                    -0.048090480268001556,
                    0.093477264046669,
                    0.159905344247818,
                    -0.0415395125746727,
                    0.2687512934207916,
                    0.23956197500228882,
                    -0.02288137562572956,
                    0.16134120523929596,
                    -0.24492265284061432,
                    0.06611064076423645,
                    -0.21286992728710175,
                    -0.018929030746221542,
                    0.07791046798229218,
                    -0.10286853462457657,
                    0.09347663819789886,
                    0.15191644430160522,
                    -0.11576182395219803,
                    0.14016872644424438,
                    0.16596181690692902,
                    -0.18589167296886444,
                    0.20633019506931305,
                    0.11223980039358139,
                    0.07606251537799835,
                    -0.029972504824399948,
                    0.240946963429451,
                    -0.020023280754685402,
                    -0.051910776644945145,
                    0.08645085990428925,
                    0.018255608156323433,
                    -0.08913436532020569,
                    0.09348616003990173,
                    -0.027234578505158424,
                    -0.05207043141126633,
                    0.09790452569723129,
                    -0.029530296102166176,
                    0.11672338098287582,
                    0.1222645491361618,
                    -0.02204306796193123,
                    0.08083926886320114,
                    0.11557242274284363,
                    -0.06537780165672302,
                    -0.054579801857471466,
                    0.06578833609819412,
                    -0.12162613123655319,
                    0.19467388093471527,
                    0.005433026701211929,
                    -0.06254702061414719,
                    -0.15715491771697998,
                    -0.044905081391334534,
                    -0.13531742990016937,
                    -0.13745124638080597,
                    -0.2505931556224823,
                    -0.19310645759105682,
                    -0.05632135272026062,
                    0.17749914526939392,
                    0.02762816846370697,
                    -0.0837317407131195,
                    -0.20723317563533783,
                    0.07986368983983994,
                    0.03943156450986862,
                    0.1499888151884079,
                    -0.12531088292598724,
                    0.10472038388252258,
                    0.1638692021369934,
                    0.14627942442893982,
                    -0.03823953494429588,
                    -0.07335842400789261,
                    -0.05144862085580826,
                    -0.16672320663928986,
                    -0.15605008602142334,
                    0.0945015549659729,
                    -0.0836363434791565,
                    0.051607631146907806,
                    0.013731556013226509,
                    0.055169958621263504,
                    0.034659311175346375,
                    0.14588268101215363,
                    0.11821828782558441,
                    0.12737780809402466,
                    -0.04761558398604393,
                    -0.06917150318622589,
                    0.1633651852607727,
                    -0.17691506445407867,
                    0.08542296290397644,
                    -0.137854665517807,
                    -0.11105921864509583,
                    -0.2286224067211151,
                    0.017994346097111702,
                    0.1724441945552826,
                    -0.04890155419707298,
                    -0.1002756878733635,
                    0.08674729615449905,
                    -0.1580398976802826,
                    0.17749395966529846,
                    -0.18610183894634247,
                    -0.0313384085893631,
                    -0.05771591141819954,
                    -0.028983905911445618,
                    -0.1959550529718399,
                    0.0877685546875,
                    0.09357690066099167,
                    0.13565045595169067,
                    0.08521516621112823,
                    -0.0007777017308399081,
                    -0.1886172741651535,
                    -0.15515461564064026,
                    -0.17141056060791016,
                    -0.020577622577548027,
                    -0.012119423598051071,
                    -0.17162132263183594,
                    0.07447499781847,
                    0.06675855070352554,
                    -0.15231654047966003,
                    0.13937635719776154,
                    0.08100424706935883,
                    0.09891103953123093,
                    -0.032474126666784286,
                    0.001012413646094501,
                    0.10044621676206589,
                    -0.05309315398335457,
                    0.005690512713044882,
                    -0.10065034031867981,
                    0.15762187540531158,
                    0.14790257811546326,
                    0.06721030175685883,
                    -0.14478877186775208,
                    -0.007067515980452299,
                    0.15486696362495422,
                    0.06534742563962936,
                    -0.052458927035331726,
                    0.029515840113162994,
                    -0.05160226672887802,
                    0.0021999161690473557,
                    -0.13549380004405975,
                    0.15555435419082642,
                    0.04288741573691368,
                    0.032451968640089035,
                    0.09562786668539047,
                    -0.032537903636693954,
                    -0.14345480501651764,
                    0.08662193268537521,
                    -0.04851914942264557,
                    0.09279392659664154,
                    -0.00828833132982254,
                    -0.15708951652050018,
                    -0.013817980885505676,
                    0.12452469021081924,
                    -0.07834161818027496,
                    0.18051043152809143,
                    0.1927046924829483,
                    -0.24582847952842712,
                    -0.08568422496318817,
                    -0.03710736706852913,
                    0.0734126940369606,
                    0.15161721408367157,
                    -0.06035325676202774,
                    0.0267263725399971,
                    -0.13382042944431305,
                    -0.12016304582357407,
                    0.14209194481372833,
                    0.09030424803495407,
                    0.07617518305778503,
                    0.06395547091960907,
                    0.0931476578116417,
                    0.15533095598220825,
                    0.018927210941910744,
                    -0.1452125906944275,
                    0.004065157845616341,
                    -0.0661255493760109,
                    -0.07617881149053574,
                    -0.22122223675251007,
                    -0.24814671277999878,
                    -0.006453981157392263,
                    0.022652825340628624,
                    -0.030977763235569,
                    0.026120973750948906,
                    -0.02817312628030777,
                    -0.06495635211467743,
                    0.16530272364616394,
                    0.06426452845335007,
                    -0.0733087807893753,
                    0.13306374847888947,
                    -0.06298668682575226,
                    0.002352281706407666,
                    -0.04416973516345024,
                    0.03425206243991852,
                    0.20875422656536102,
                    -0.024099202826619148,
                    0.10620897263288498,
                    -0.11972597241401672,
                    0.14952701330184937,
                    0.09159380197525024,
                    0.17048075795173645,
                    0.017969025298953056,
                    0.022853823378682137,
                    0.08890335261821747,
                    0.05820204317569733,
                    -0.026562809944152832,
                    -0.1247374415397644,
                    -0.09085037559270859,
                    0.04744777828454971,
                    0.12256203591823578,
                    0.09223834425210953,
                    0.32819268107414246,
                    -0.28755319118499756,
                    -0.05300304293632507,
                    0.0430314764380455,
                    0.07760141789913177,
                    0.08178455382585526,
                    0.016401026397943497,
                    -0.0005082361167296767,
                    -0.07603295147418976,
                    0.02855486050248146,
                    -0.18406613171100616,
                    0.0017579791601747274,
                    0.22567375004291534,
                    -0.06550107896327972,
                    -0.17697517573833466,
                    0.019604675471782684,
                    -0.26634976267814636,
                    0.10156828165054321,
                    0.14379048347473145,
                    -0.256912499666214,
                    0.09303703904151917,
                    0.2956449091434479,
                    0.3329361379146576,
                    0.00641421414911747,
                    -0.07897601276636124,
                    -0.03110051527619362,
                    -0.2300419807434082,
                    0.002093329792842269,
                    -0.004957713186740875,
                    0.007800623774528503,
                    0.07071434706449509,
                    -0.2620050609111786,
                    0.08400406688451767,
                    0.05151396989822388,
                    -0.1662590205669403,
                    0.1984107941389084,
                    0.19657866656780243,
                    -0.29840120673179626,
                    -0.1466526836156845,
                    -0.07231663167476654,
                    -0.03434821963310242,
                    0.2936438024044037,
                    0.16567547619342804,
                    -0.1046050414443016,
                    0.0633808895945549,
                    -0.0054938942193984985,
                    0.1559446156024933,
                    -0.04877021163702011,
                    0.08798946440219879,
                    -0.2278784215450287,
                    0.06400347501039505,
                    -0.1453462392091751,
                    -0.1289786696434021,
                    -0.22739267349243164,
                    -0.012945277616381645,
                    -0.006221089046448469,
                    -0.08266279846429825,
                    0.20586861670017242,
                    0.22828839719295502,
                    0.14529484510421753,
                    0.14424805343151093,
                    -0.30344605445861816,
                    0.1543276458978653,
                    -0.062208183109760284,
                    0.08193084597587585,
                    -0.0747893676161766,
                    -0.049692828208208084,
                    0.1428881585597992,
                    0.0070561133325099945,
                    0.04578293114900589,
                    -0.09980668872594833,
                    -0.19208355247974396,
                    -0.16568458080291748,
                    0.12475519627332687,
                    -0.1680884063243866,
                    -0.015359625220298767,
                    0.07767432928085327,
                    0.07270434498786926,
                    0.015569397248327732,
                    0.08198095113039017,
                    0.010761843994259834,
                    0.19714727997779846,
                    -0.10883595049381256,
                    -0.09092466533184052,
                    -0.021621227264404297,
                    0.036812372505664825,
                    0.3212358355522156,
                    -0.03953784704208374,
                    0.13610407710075378,
                    -0.022099774330854416,
                    -0.2905604839324951,
                    -0.054639700800180435,
                    -0.18089401721954346,
                    0.1369687169790268,
                    -0.14090317487716675,
                    0.041457004845142365,
                    -0.021553784608840942,
                    0.003979455679655075,
                    0.021264661103487015,
                    -0.030616238713264465,
                    0.03751939907670021,
                    -0.13180260360240936,
                    0.020199300721287727,
                    -0.07389085739850998,
                    0.17999109625816345,
                    0.1518067717552185,
                    -0.07651139050722122,
                    -0.01896912418305874,
                    -0.032947804778814316,
                    -0.07166627049446106,
                    -0.0432497002184391,
                    -0.059731584042310715,
                    -0.06228836253285408,
                    -0.23684167861938477,
                    0.09456261247396469,
                    -0.11533541977405548,
                    0.07401367276906967,
